tree
version=v2
num_class=1
num_tree_per_iteration=1
label_index=0
max_feature_idx=38
objective=regression
feature_names=Column_0 Column_1 Column_2 Column_3 Column_4 Column_5 Column_6 Column_7 Column_8 Column_9 Column_10 Column_11 Column_12 Column_13 Column_14 Column_15 Column_16 Column_17 Column_18 Column_19 Column_20 Column_21 Column_22 Column_23 Column_24 Column_25 Column_26 Column_27 Column_28 Column_29 Column_30 Column_31 Column_32 Column_33 Column_34 Column_35 Column_36 Column_37 Column_38
feature_infos=[0:1] [24:88] [12.94:58.939999999999998] [9.3699999999999992:99.209999999999994] [24.460000000000001:147.90000000000001] [10.17:271.92000000000002] [69.620000000000005:83.579999999999998] [39.350000000000001:50.460000000000001] [24.460000000000001:37.609999999999999] [1.1100000000000001:1.96] [0.35999999999999999:4.7000000000000002] [3.21:8.3800000000000008] [0.98999999999999999:2.3100000000000001] [1.6399999999999999:6.3200000000000003] [2.2999999999999998:9.9600000000000009] [51.039999999999999:126.37] [202.5:602.83000000000004] none none none none none [4.4900000000000002:12.369999999999999] [3.3199999999999998:6.4100000000000001] [114:188] [0.35799999999999998:0.56100000000000005] [80.799999999999997:113] [26.199999999999999:40.399999999999999] [318:357] [11.4:16.300000000000001] [92:351] [7.7000000000000002:14.5] [9.3000000000000007:25.100000000000001] [0.10000000000000001:0.37] [37:75.299999999999997] [18.399999999999999:55.100000000000001] [4.4000000000000004:11.5] [0.20000000000000001:6.0999999999999996] [0.10000000000000001:1.2]
tree_sizes=253

Tree=0
num_leaves=2
num_cat=0
split_feature=29
split_gain=2.1669
threshold=12.750000000000002
decision_type=2
left_child=-1
right_child=-2
leaf_value=5.4786750066280367 5.455400009155273
leaf_count=20 20
internal_value=0
internal_count=40
shrinkage=1



feature importances:
Column_29=1

pandas_categorical:null
